digraph Tree {
node [shape=box] ;
0 [label="X[0] <= 3.05\ngini = 0.661\nsamples = 90\nvalue = [35, 29, 26]"] ;
1 [label="X[0] <= 2.45\ngini = 0.555\nsamples = 44\nvalue = [3, 23, 18]"] ;
0 -> 1 [labeldistance=2.5, labelangle=45, headlabel="True"] ;
2 [label="gini = 0.0\nsamples = 7\nvalue = [0, 7, 0]"] ;
1 -> 2 ;
3 [label="X[0] <= 2.85\ngini = 0.57\nsamples = 37\nvalue = [3, 16, 18]"] ;
1 -> 3 ;
4 [label="X[0] <= 2.65\ngini = 0.455\nsamples = 20\nvalue = [0, 7, 13]"] ;
3 -> 4 ;
5 [label="X[0] <= 2.55\ngini = 0.32\nsamples = 5\nvalue = [0, 1, 4]"] ;
4 -> 5 ;
6 [label="gini = 0.375\nsamples = 4\nvalue = [0, 1, 3]"] ;
5 -> 6 ;
7 [label="gini = 0.0\nsamples = 1\nvalue = [0, 0, 1]"] ;
5 -> 7 ;
8 [label="X[0] <= 2.75\ngini = 0.48\nsamples = 15\nvalue = [0, 6, 9]"] ;
4 -> 8 ;
9 [label="gini = 0.49\nsamples = 7\nvalue = [0, 3, 4]"] ;
8 -> 9 ;
10 [label="gini = 0.469\nsamples = 8\nvalue = [0, 3, 5]"] ;
8 -> 10 ;
11 [label="X[0] <= 2.95\ngini = 0.602\nsamples = 17\nvalue = [3, 9, 5]"] ;
3 -> 11 ;
12 [label="gini = 0.0\nsamples = 4\nvalue = [0, 4, 0]"] ;
11 -> 12 ;
13 [label="gini = 0.651\nsamples = 13\nvalue = [3, 5, 5]"] ;
11 -> 13 ;
14 [label="X[0] <= 3.35\ngini = 0.469\nsamples = 46\nvalue = [32, 6, 8]"] ;
0 -> 14 [labeldistance=2.5, labelangle=-45, headlabel="False"] ;
15 [label="X[0] <= 3.25\ngini = 0.623\nsamples = 18\nvalue = [9, 5, 4]"] ;
14 -> 15 ;
16 [label="X[0] <= 3.15\ngini = 0.64\nsamples = 15\nvalue = [7, 4, 4]"] ;
15 -> 16 ;
17 [label="gini = 0.653\nsamples = 7\nvalue = [3, 2, 2]"] ;
16 -> 17 ;
18 [label="gini = 0.625\nsamples = 8\nvalue = [4, 2, 2]"] ;
16 -> 18 ;
19 [label="gini = 0.444\nsamples = 3\nvalue = [2, 1, 0]"] ;
15 -> 19 ;
20 [label="X[0] <= 3.85\ngini = 0.304\nsamples = 28\nvalue = [23, 1, 4]"] ;
14 -> 20 ;
21 [label="X[0] <= 3.55\ngini = 0.355\nsamples = 23\nvalue = [18, 1, 4]"] ;
20 -> 21 ;
22 [label="X[0] <= 3.45\ngini = 0.255\nsamples = 14\nvalue = [12, 1, 1]"] ;
21 -> 22 ;
23 [label="gini = 0.37\nsamples = 9\nvalue = [7, 1, 1]"] ;
22 -> 23 ;
24 [label="gini = 0.0\nsamples = 5\nvalue = [5, 0, 0]"] ;
22 -> 24 ;
25 [label="X[0] <= 3.75\ngini = 0.444\nsamples = 9\nvalue = [6, 0, 3]"] ;
21 -> 25 ;
26 [label="X[0] <= 3.65\ngini = 0.375\nsamples = 4\nvalue = [3, 0, 1]"] ;
25 -> 26 ;
27 [label="gini = 0.444\nsamples = 3\nvalue = [2, 0, 1]"] ;
26 -> 27 ;
28 [label="gini = 0.0\nsamples = 1\nvalue = [1, 0, 0]"] ;
26 -> 28 ;
29 [label="gini = 0.48\nsamples = 5\nvalue = [3, 0, 2]"] ;
25 -> 29 ;
30 [label="gini = 0.0\nsamples = 5\nvalue = [5, 0, 0]"] ;
20 -> 30 ;
}